<?xml version="1.0"?>
<opencv_storage>
<cascade>
  <stageType>BOOST</stageType>
  <featureType>LBP</featureType>
  <height>50</height>
  <width>50</width>
  <stageParams>
    <boostType>GAB</boostType>
    <minHitRate>9.9500000476837158e-01</minHitRate>
    <maxFalseAlarm>5.0000000000000000e-01</maxFalseAlarm>
    <weightTrimRate>9.4999999999999996e-01</weightTrimRate>
    <maxDepth>1</maxDepth>
    <maxWeakCount>100</maxWeakCount></stageParams>
  <featureParams>
    <maxCatCount>256</maxCatCount>
    <featSize>1</featSize></featureParams>
  <stageNum>30</stageNum>
  <stages>
    <!-- stage 0 -->
    <_>
      <maxWeakCount>1</maxWeakCount>
      <stageThreshold>8.8800001144409180e-01</stageThreshold>
      <weakClassifiers>
        <_>
          <internalNodes>
            0 -1 44 -914110561 -721055413 -1862024557 -710930171
            -1048530741 -788428287 144312489 -89088864</internalNodes>
          <leafValues>
            -1. 8.8800001144409180e-01</leafValues></_></weakClassifiers></_>
    <!-- stage 1 -->
    <_>
      <maxWeakCount>2</maxWeakCount>
      <stageThreshold>-7.5828433036804199e-02</stageThreshold>
      <weakClassifiers>
        <_>
          <internalNodes>
            0 -1 50 -781716577 -1877540603 4784131 -2127336960
            -2146852861 808878080 -1073676121 -88149807</internalNodes>
          <leafValues>
            -9.4117647409439087e-01 9.1452991962432861e-01</leafValues></_>
        <_>
          <internalNodes>
            0 -1 9 -519724765 -1056862071 655 -1691418583 83935499
            587204614 -2138986098 -74472757</internalNodes>
          <leafValues>
            -9.8141461610794067e-01 8.6534804105758667e-01</leafValues></_></weakClassifiers></_>
    <!-- stage 2 -->
    <_>
      <maxWeakCount>2</maxWeakCount>
      <stageThreshold>-1.1343643814325333e-01</stageThreshold>
      <weakClassifiers>
        <_>
          <internalNodes>
            0 -1 46 -783821935 -855621370 -1878981991 -2130378568
            -1056882509 -1602092374 545358025 -108013431</internalNodes>
          <leafValues>
            -9.7948718070983887e-01 8.4126985073089600e-01</leafValues></_>
        <_>
          <internalNodes>
            0 -1 3 -800079769 1208025105 540752 25804825 -527400818
            98304 1879165330 -540028241</internalNodes>
          <leafValues>
            -9.5470625162124634e-01 9.0581083297729492e-01</leafValues></_></weakClassifiers></_>
    <!-- stage 3 -->
    <_>
      <maxWeakCount>2</maxWeakCount>
      <stageThreshold>-3.7522505968809128e-02</stageThreshold>
      <weakClassifiers>
        <_>
          <internalNodes>
            0 -1 1 -2107260371 -1056750901 33571863 -1047273469
            1411712523 -1072557940 -1039361141 -75247121</internalNodes>
          <leafValues>
            -9.6019899845123291e-01 8.9999997615814209e-01</leafValues></_>
        <_>
          <internalNodes>
            0 -1 27 -787230179 -754351861 1344405527 -1853816817
            -1845481407 -1182793592 -2113214437 -74456630</internalNodes>
          <leafValues>
            -9.3752253055572510e-01 9.3147575855255127e-01</leafValues></_></weakClassifiers></_>
    <!-- stage 4 -->
    <_>
      <maxWeakCount>2</maxWeakCount>
      <stageThreshold>-1.1019945144653320e-01</stageThreshold>
      <weakClassifiers>
        <_>
          <internalNodes>
            0 -1 11 -761879665 1359052819 135 -2130698237 -939474937
            1375731843 -2012782440 -369169749</internalNodes>
          <leafValues>
            -9.3969851732254028e-01 8.3606559038162231e-01</leafValues></_>
        <_>
          <internalNodes>
            0 -1 0 -2138573553 -2113830231 16777249 -418938735
            -784199641 -2128543741 -939405054 -149691445</internalNodes>
          <leafValues>
            -9.4626504182815552e-01 8.6894762516021729e-01</leafValues></_></weakClassifiers></_>
    <!-- stage 5 -->
    <_>
      <maxWeakCount>2</maxWeakCount>
      <stageThreshold>-9.1244123876094818e-02</stageThreshold>
      <weakClassifiers>
        <_>
          <internalNodes>
            0 -1 53 -716465665 -779419391 -2147483647 352698560
            -1996250929 -1039663102 -738164583 -745553891</internalNodes>
          <leafValues>
            -9.6969699859619141e-01 8.6991870403289795e-01</leafValues></_>
        <_>
          <internalNodes>
            0 -1 56 -782894503 -783728511 287318145 1359069315
            -930086517 -2012626938 -1811922815 -641228733</internalNodes>
          <leafValues>
            -9.2789816856384277e-01 8.7845283746719360e-01</leafValues></_></weakClassifiers></_>
    <!-- stage 6 -->
    <_>
      <maxWeakCount>2</maxWeakCount>
      <stageThreshold>-1.2358992546796799e-01</stageThreshold>
      <weakClassifiers>
        <_>
          <internalNodes>
            0 -1 17 -775304255 1342406727 33288 864133135 -2147319670
            1073905664 -771718646 -204737889</internalNodes>
          <leafValues>
            -9.2079210281372070e-01 8.4873950481414795e-01</leafValues></_>
        <_>
          <internalNodes>
            0 -1 13 -530568561 -1867415295 1075953691 -1585328059
            -2021076821 -226492416 -1610612725 -56639484</internalNodes>
          <leafValues>
            -9.7232943773269653e-01 8.1364381313323975e-01</leafValues></_></weakClassifiers></_>
    <!-- stage 7 -->
    <_>
      <maxWeakCount>2</maxWeakCount>
      <stageThreshold>-7.7326014637947083e-02</stageThreshold>
      <weakClassifiers>
        <_>
          <internalNodes>
            0 -1 8 -2126258977 1392628088 -700168175 -402603949
            134742027 -1417018716 176200203 -358380849</internalNodes>
          <leafValues>
            -9.3969851732254028e-01 8.3606559038162231e-01</leafValues></_>
        <_>
          <internalNodes>
            0 -1 37 -717884473 -976773109 1441792 -1543274480 -768698107
            285474818 -1056882175 -146021937</internalNodes>
          <leafValues>
            -9.1339159011840820e-01 9.1218996047973633e-01</leafValues></_></weakClassifiers></_>
    <!-- stage 8 -->
    <_>
      <maxWeakCount>2</maxWeakCount>
      <stageThreshold>-6.1299894005060196e-02</stageThreshold>
      <weakClassifiers>
        <_>
          <internalNodes>
            0 -1 34 -179600073 -1727986683 -2143255213 -1861643621
            -1501519871 268599808 -2013097856 -863272664</internalNodes>
          <leafValues>
            -9.3999999761581421e-01 8.5123968124389648e-01</leafValues></_>
        <_>
          <internalNodes>
            0 -1 42 -645147233 -1073016382 1078412553 -620277685
            -1996488037 -1062534646 553656961 -104620919</internalNodes>
          <leafValues>
            -9.1253954172134399e-01 8.8735109567642212e-01</leafValues></_></weakClassifiers></_>
    <!-- stage 9 -->
    <_>
      <maxWeakCount>2</maxWeakCount>
      <stageThreshold>-2.0970407873392105e-02</stageThreshold>
      <weakClassifiers>
        <_>
          <internalNodes>
            0 -1 47 -1324920577 -246345810 50921611 -1655586555
            -1974959957 -499122112 -1069012213 -291528695</internalNodes>
          <leafValues>
            -8.9473682641983032e-01 9.1071426868438721e-01</leafValues></_>
        <_>
          <internalNodes>
            0 -1 28 -698386669 1916829896 1351197699 -855588469
            671728401 1208500257 671730307 -1315794741</internalNodes>
          <leafValues>
            -9.3010509014129639e-01 8.7376642227172852e-01</leafValues></_></weakClassifiers></_>
    <!-- stage 10 -->
    <_>
      <maxWeakCount>2</maxWeakCount>
      <stageThreshold>-1.1495300382375717e-01</stageThreshold>
      <weakClassifiers>
        <_>
          <internalNodes>
            0 -1 10 -934899297 -246278848 67829847 -754974580
            -2147432215 -503218174 -1316408929 -1078542045</internalNodes>
          <leafValues>
            -9.5854920148849487e-01 7.8125000000000000e-01</leafValues></_>
        <_>
          <internalNodes>
            0 -1 51 -145370121 -763330532 215057 -2010415089 17086529
            1116102670 -1052140261 -1280652860</internalNodes>
          <leafValues>
            -8.9620298147201538e-01 9.1025155782699585e-01</leafValues></_></weakClassifiers></_>
    <!-- stage 11 -->
    <_>
      <maxWeakCount>2</maxWeakCount>
      <stageThreshold>-1.1389312893152237e-01</stageThreshold>
      <weakClassifiers>
        <_>
          <internalNodes>
            0 -1 19 -2058018443 1965261078 271651025 -888929829
            272662667 -1069543292 -1375614838 -219625079</internalNodes>
          <leafValues>
            -9.3908631801605225e-01 8.0645161867141724e-01</leafValues></_>
        <_>
          <internalNodes>
            0 -1 40 -922297553 721419 16787466 -645595133 1073791179
            822231303 -268264225 -41299959</internalNodes>
          <leafValues>
            -9.2034476995468140e-01 8.5786873102188110e-01</leafValues></_></weakClassifiers></_>
    <!-- stage 12 -->
    <_>
      <maxWeakCount>2</maxWeakCount>
      <stageThreshold>-1.4041087031364441e-01</stageThreshold>
      <weakClassifiers>
        <_>
          <internalNodes>
            0 -1 57 -251534369 1343488001 513 1091567889 8487043
            16777216 -2147420087 -404258675</internalNodes>
          <leafValues>
            -9.3814432621002197e-01 7.6377952098846436e-01</leafValues></_>
        <_>
          <internalNodes>
            0 -1 22 1959111303 -1820078080 1342677219 -779303658
            -1559965363 134217728 -2129870838 -608214822</internalNodes>
          <leafValues>
            -9.0419036149978638e-01 8.8194656372070313e-01</leafValues></_></weakClassifiers></_>
    <!-- stage 13 -->
    <_>
      <maxWeakCount>2</maxWeakCount>
      <stageThreshold>-7.8471332788467407e-02</stageThreshold>
      <weakClassifiers>
        <_>
          <internalNodes>
            0 -1 7 -1072225209 -250605487 1310814 -259833471 -1333755893
            -1165950976 -904875829 -340278873</internalNodes>
          <leafValues>
            -9.3000000715255737e-01 8.3471071720123291e-01</leafValues></_>
        <_>
          <internalNodes>
            0 -1 18 153272665 -1862074237 -2096069223 1566576641
            134840477 -1163853692 -1459615069 -1953953144</internalNodes>
          <leafValues>
            -9.1318207979202271e-01 8.9095127582550049e-01</leafValues></_></weakClassifiers></_>
    <!-- stage 14 -->
    <_>
      <maxWeakCount>2</maxWeakCount>
      <stageThreshold>-1.4257736504077911e-01</stageThreshold>
      <weakClassifiers>
        <_>
          <internalNodes>
            0 -1 50 557928865 -1064236912 697516337 -699649765
            -1011167221 -456039242 -1016749909 -637878139</internalNodes>
          <leafValues>
            -9.5918369293212891e-01 8.2400000095367432e-01</leafValues></_>
        <_>
          <internalNodes>
            0 -1 52 1345700625 -251591935 -1576008831 -754188288
            -768807798 -133692888 -1064888181 -1970550775</internalNodes>
          <leafValues>
            -9.2720049619674683e-01 8.1660628318786621e-01</leafValues></_></weakClassifiers></_>
    <!-- stage 15 -->
    <_>
      <maxWeakCount>2</maxWeakCount>
      <stageThreshold>-1.4600996673107147e-01</stageThreshold>
      <weakClassifiers>
        <_>
          <internalNodes>
            0 -1 54 356946823 -1840246768 1141375315 -585496559
            404784302 -1599864320 -1801928528 -573912828</internalNodes>
          <leafValues>
            -9.2893403768539429e-01 7.9032260179519653e-01</leafValues></_>
        <_>
          <internalNodes>
            0 -1 24 1895908271 1898199379 25346453 1895874833 580098767
            -796915546 1208233991 -108003327</internalNodes>
          <leafValues>
            -9.3633252382278442e-01 8.0255889892578125e-01</leafValues></_></weakClassifiers></_>
    <!-- stage 16 -->
    <_>
      <maxWeakCount>2</maxWeakCount>
      <stageThreshold>-8.9165166020393372e-02</stageThreshold>
      <weakClassifiers>
        <_>
          <internalNodes>
            0 -1 25 -1578510573 -670875375 -2004840047 -594788335
            -2080366417 -2012700635 -1006450045 -67411420</internalNodes>
          <leafValues>
            -9.1089111566543579e-01 8.3193278312683105e-01</leafValues></_>
        <_>
          <internalNodes>
            0 -1 39 -909249105 453052675 -1073540062 -469479391
            -2147444849 1275118147 1074038920 -327036719</internalNodes>
          <leafValues>
            -9.2109793424606323e-01 8.5299247503280640e-01</leafValues></_></weakClassifiers></_>
    <!-- stage 17 -->
    <_>
      <maxWeakCount>2</maxWeakCount>
      <stageThreshold>-9.1878779232501984e-02</stageThreshold>
      <weakClassifiers>
        <_>
          <internalNodes>
            0 -1 5 -553418665 -245284345 -536870865 -569835248
            -1591637873 1094878209 1696712832 -409538427</internalNodes>
          <leafValues>
            -8.9215683937072754e-01 8.2905983924865723e-01</leafValues></_>
        <_>
          <internalNodes>
            0 -1 21 -115660065 1900318849 545327841 838861121
            -1767784275 -1417608926 -922580983 -673459679</internalNodes>
          <leafValues>
            -9.2093861103057861e-01 8.2785809040069580e-01</leafValues></_></weakClassifiers></_>
    <!-- stage 18 -->
    <_>
      <maxWeakCount>2</maxWeakCount>
      <stageThreshold>-1.8623949587345123e-01</stageThreshold>
      <weakClassifiers>
        <_>
          <internalNodes>
            0 -1 43 289522103 -792657789 1426133077 -2078995575
            -2136964949 -1071120341 -1442266975 -31880576</internalNodes>
          <leafValues>
            -9.5833331346511841e-01 7.6744186878204346e-01</leafValues></_>
        <_>
          <internalNodes>
            0 -1 14 1095277519 -249298876 -1845213895 318906572
            1349657407 -2079850368 -1602057825 -912717749</internalNodes>
          <leafValues>
            -9.5368134975433350e-01 8.0694848299026489e-01</leafValues></_></weakClassifiers></_>
    <!-- stage 19 -->
    <_>
      <maxWeakCount>2</maxWeakCount>
      <stageThreshold>-2.3425173014402390e-02</stageThreshold>
      <weakClassifiers>
        <_>
          <internalNodes>
            0 -1 41 -6229 -12583937 -134252737 -2 -545271809 -8388611
            -524297 -172055553</internalNodes>
          <leafValues>
            -8.4474885463714600e-01 9.8039215803146362e-01</leafValues></_>
        <_>
          <internalNodes>
            0 -1 35 -1992297217 -175046592 269560274 1895890946
            -2071845465 -1413276984 -360183672 -645562212</internalNodes>
          <leafValues>
            -9.2950934171676636e-01 8.2132369279861450e-01</leafValues></_></weakClassifiers></_>
    <!-- stage 20 -->
    <_>
      <maxWeakCount>2</maxWeakCount>
      <stageThreshold>-1.7742207646369934e-01</stageThreshold>
      <weakClassifiers>
        <_>
          <internalNodes>
            0 -1 15 1410306827 -246410159 573711 -45088487 -1602219892
            -524255104 -1744795512 -608008542</internalNodes>
          <leafValues>
            -8.9999997615814209e-01 7.8512394428253174e-01</leafValues></_>
        <_>
          <internalNodes>
            0 -1 26 -242199677 1367408641 -792652557 -1860049920
            -1977580853 -2113896318 -1811930877 -88049152</internalNodes>
          <leafValues>
            -9.6254605054855347e-01 7.5266730785369873e-01</leafValues></_></weakClassifiers></_>
    <!-- stage 21 -->
    <_>
      <maxWeakCount>2</maxWeakCount>
      <stageThreshold>-1.5595725178718567e-01</stageThreshold>
      <weakClassifiers>
        <_>
          <internalNodes>
            0 -1 2 2018235295 -704053113 1347457541 -1064054782
            -1861709815 -1205780456 -1610448693 -1643516437</internalNodes>
          <leafValues>
            -9.3814432621002197e-01 7.6377952098846436e-01</leafValues></_>
        <_>
          <internalNodes>
            0 -1 33 -1058544723 1611841670 16777475 -1547360245
            -929947598 1342965776 -2147464954 -336867325</internalNodes>
          <leafValues>
            -9.1973674297332764e-01 8.4072428941726685e-01</leafValues></_></weakClassifiers></_>
    <!-- stage 22 -->
    <_>
      <maxWeakCount>2</maxWeakCount>
      <stageThreshold>-8.9052230119705200e-02</stageThreshold>
      <weakClassifiers>
        <_>
          <internalNodes>
            0 -1 49 -586429999 1430376465 230137 4817024 -2138842207
            136347657 -2147311578 -493100373</internalNodes>
          <leafValues>
            -9.0099012851715088e-01 8.1512606143951416e-01</leafValues></_>
        <_>
          <internalNodes>
            0 -1 20 -939272625 -804040695 1612268546 -1462681585
            545761327 1099012096 -383252605 -76836723</internalNodes>
          <leafValues>
            -9.0417826175689697e-01 8.3454048633575439e-01</leafValues></_></weakClassifiers></_>
    <!-- stage 23 -->
    <_>
      <maxWeakCount>2</maxWeakCount>
      <stageThreshold>-2.4910502135753632e-02</stageThreshold>
      <weakClassifiers>
        <_>
          <internalNodes>
            0 -1 36 2080373319 2139094927 -1977614337 -16777725
            -142606338 2004877311 -394227457 -17821</internalNodes>
          <leafValues>
            -8.4186047315597534e-01 9.0566039085388184e-01</leafValues></_>
        <_>
          <internalNodes>
            0 -1 30 -733114341 -645578731 57621 -863465471 -2147450727
            -1602191359 -2137994072 -58029926</internalNodes>
          <leafValues>
            -9.3057090044021606e-01 8.1707912683486938e-01</leafValues></_></weakClassifiers></_>
    <!-- stage 24 -->
    <_>
      <maxWeakCount>2</maxWeakCount>
      <stageThreshold>-6.0164637863636017e-02</stageThreshold>
      <weakClassifiers>
        <_>
          <internalNodes>
            0 -1 29 -1 2147483647 217038778 1073741792 2147483647
            2147483647 -1 -1080185</internalNodes>
          <leafValues>
            -8.1735157966613770e-01 9.2156863212585449e-01</leafValues></_>
        <_>
          <internalNodes>
            0 -1 16 -389551461 1091682432 -771604472 17375261 34250977
            -931133757 1620103296 -12392894</internalNodes>
          <leafValues>
            -9.7276043891906738e-01 7.5718694925308228e-01</leafValues></_></weakClassifiers></_>
    <!-- stage 25 -->
    <_>
      <maxWeakCount>2</maxWeakCount>
      <stageThreshold>-2.1301452815532684e-01</stageThreshold>
      <weakClassifiers>
        <_>
          <internalNodes>
            0 -1 48 290701845 1833959600 -2137456355 -618389478
            -1466396535 -1475737344 -1742698367 -607544432</internalNodes>
          <leafValues>
            -9.6739131212234497e-01 6.7883211374282837e-01</leafValues></_>
        <_>
          <internalNodes>
            0 -1 31 -788430393 -587131775 1207977999 -1815769087
            1099636827 417370632 -1014385653 -6643328</internalNodes>
          <leafValues>
            -8.9184665679931641e-01 8.2681131362915039e-01</leafValues></_></weakClassifiers></_>
    <!-- stage 26 -->
    <_>
      <maxWeakCount>2</maxWeakCount>
      <stageThreshold>1.8077032640576363e-02</stageThreshold>
      <weakClassifiers>
        <_>
          <internalNodes>
            0 -1 32 -17 787447791 1145012395 -713013103 -1715228672
            218661634 -1535078311 -67141372</internalNodes>
          <leafValues>
            -8.6854457855224609e-01 9.2592591047286987e-01</leafValues></_>
        <_>
          <internalNodes>
            0 -1 38 1946251675 1291886363 1107468671 -2113830736
            -1337540316 -804257782 -1736302191 -1717821248</internalNodes>
          <leafValues>
            -8.9901059865951538e-01 8.8662165403366089e-01</leafValues></_></weakClassifiers></_>
    <!-- stage 27 -->
    <_>
      <maxWeakCount>2</maxWeakCount>
      <stageThreshold>-1.5229724347591400e-01</stageThreshold>
      <weakClassifiers>
        <_>
          <internalNodes>
            0 -1 23 1074775046 268812356 -1873270255 -801007487
            1209532486 1074045057 -905854462 -83124214</internalNodes>
          <leafValues>
            -9.4871795177459717e-01 7.9365080595016479e-01</leafValues></_>
        <_>
          <internalNodes>
            0 -1 12 1126368261 555843843 1392537609 1497587969
            -2063588629 -1048408064 -1069502172 -125787992</internalNodes>
          <leafValues>
            -9.4594806432723999e-01 8.5906529426574707e-01</leafValues></_></weakClassifiers></_>
    <!-- stage 28 -->
    <_>
      <maxWeakCount>2</maxWeakCount>
      <stageThreshold>-1.4229427278041840e-01</stageThreshold>
      <weakClassifiers>
        <_>
          <internalNodes>
            0 -1 55 891404419 807960594 -2147203071 -1610053488
            1630769288 -1290403840 -1979613043 -1383878455</internalNodes>
          <leafValues>
            -9.3846154212951660e-01 7.7777779102325439e-01</leafValues></_>
        <_>
          <internalNodes>
            0 -1 6 31594203 -988249855 1897215321 -1023147903 276869271
            -536762293 203423754 -124190592</internalNodes>
          <leafValues>
            -9.2007207870483398e-01 8.4984511137008667e-01</leafValues></_></weakClassifiers></_>
    <!-- stage 29 -->
    <_>
      <maxWeakCount>2</maxWeakCount>
      <stageThreshold>6.1469547450542450e-02</stageThreshold>
      <weakClassifiers>
        <_>
          <internalNodes>
            0 -1 45 -4212805 -1078984897 -2146902089 -8062 -32769
            134218436 -1744203644 -273701</internalNodes>
          <leafValues>
            -8.5981309413909912e-01 9.2523366212844849e-01</leafValues></_>
        <_>
          <internalNodes>
            0 -1 4 -1029459753 -641658304 -1073727487 -578813942
            403784705 -1879011327 1116244235 -116670461</internalNodes>
          <leafValues>
            -8.6376410722732544e-01 9.4092994928359985e-01</leafValues></_></weakClassifiers></_></stages>
  <features>
    <_>
      <rect>
        1 6 6 13</rect></_>
    <_>
      <rect>
        2 2 10 12</rect></_>
    <_>
      <rect>
        2 26 8 7</rect></_>
    <_>
      <rect>
        3 9 5 8</rect></_>
    <_>
      <rect>
        3 12 4 7</rect></_>
    <_>
      <rect>
        3 17 4 4</rect></_>
    <_>
      <rect>
        3 19 9 3</rect></_>
    <_>
      <rect>
        3 29 7 6</rect></_>
    <_>
      <rect>
        3 39 8 3</rect></_>
    <_>
      <rect>
        4 12 13 6</rect></_>
    <_>
      <rect>
        4 37 10 4</rect></_>
    <_>
      <rect>
        5 1 13 14</rect></_>
    <_>
      <rect>
        6 7 9 5</rect></_>
    <_>
      <rect>
        6 7 10 7</rect></_>
    <_>
      <rect>
        6 35 10 5</rect></_>
    <_>
      <rect>
        8 0 13 8</rect></_>
    <_>
      <rect>
        8 14 3 7</rect></_>
    <_>
      <rect>
        8 15 3 5</rect></_>
    <_>
      <rect>
        9 20 7 2</rect></_>
    <_>
      <rect>
        10 13 7 5</rect></_>
    <_>
      <rect>
        11 7 2 3</rect></_>
    <_>
      <rect>
        11 8 3 8</rect></_>
    <_>
      <rect>
        11 11 4 6</rect></_>
    <_>
      <rect>
        12 7 2 5</rect></_>
    <_>
      <rect>
        13 25 6 2</rect></_>
    <_>
      <rect>
        14 23 3 3</rect></_>
    <_>
      <rect>
        14 23 6 3</rect></_>
    <_>
      <rect>
        15 17 11 8</rect></_>
    <_>
      <rect>
        16 4 10 13</rect></_>
    <_>
      <rect>
        16 8 3 8</rect></_>
    <_>
      <rect>
        16 11 8 7</rect></_>
    <_>
      <rect>
        17 6 4 2</rect></_>
    <_>
      <rect>
        19 8 3 4</rect></_>
    <_>
      <rect>
        20 4 2 3</rect></_>
    <_>
      <rect>
        20 10 7 7</rect></_>
    <_>
      <rect>
        20 44 3 2</rect></_>
    <_>
      <rect>
        21 3 5 6</rect></_>
    <_>
      <rect>
        21 9 2 4</rect></_>
    <_>
      <rect>
        21 24 3 3</rect></_>
    <_>
      <rect>
        24 5 4 7</rect></_>
    <_>
      <rect>
        24 11 4 5</rect></_>
    <_>
      <rect>
        26 3 4 10</rect></_>
    <_>
      <rect>
        26 40 4 3</rect></_>
    <_>
      <rect>
        26 44 3 1</rect></_>
    <_>
      <rect>
        26 46 1 1</rect></_>
    <_>
      <rect>
        27 6 3 8</rect></_>
    <_>
      <rect>
        28 37 4 4</rect></_>
    <_>
      <rect>
        28 38 3 4</rect></_>
    <_>
      <rect>
        28 41 2 1</rect></_>
    <_>
      <rect>
        29 23 6 9</rect></_>
    <_>
      <rect>
        29 43 1 2</rect></_>
    <_>
      <rect>
        30 17 6 9</rect></_>
    <_>
      <rect>
        31 27 6 5</rect></_>
    <_>
      <rect>
        32 39 2 3</rect></_>
    <_>
      <rect>
        33 40 2 1</rect></_>
    <_>
      <rect>
        35 21 3 6</rect></_>
    <_>
      <rect>
        36 33 3 3</rect></_>
    <_>
      <rect>
        37 35 1 3</rect></_></features></cascade>
</opencv_storage>
